{"Name":"model.json","Shapes":[[5,3],[3,5],[5,7],[7,9],[9,5],[5,3]],"Weights":[0.18127693631549135,0.7629841216897935,0.2850263730706637,-0.10788219238287489,-0.1305316840581261,0.3235870542319761,-0.7523387516423949,-0.5949261022244288,-0.6980692702390401,-0.3448307726506388,0.0263490454822477,0.5432403477187684,-0.4949094902453011,-0.20670781165101848,-0.3151324860817081,-0.053884369260350895,-0.37579587366277684,-0.35835809508426897,0.3101837575508213,-0.4874804125444979,-0.5140954100000452,-0.2409777747889097,0.12240970489235292,0.6278535869684148,-0.3583366397949874,-0.3514633096621316,0.43746933019729206,-0.5082137373870886,0.63277880430254,0.3407275898957345,0.03368699987578905,-0.6670801768900981,-0.48319678349221373,0.15167926881643068,0.6720931427967752,-0.5947423894315339,0.13407960467296154,-0.6234975542821344,0.27156377574386814,-0.280689316343974,-0.46207131724719874,0.05812397236492117,0.06244541019220684,-0.31323752518992953,-0.10867919877563459,0.043254733463850226,-0.3485463667472863,-0.30818401241945437,0.4081489849878922,-0.19543656375036922,0.5381692452490042,-0.28692659264245374,0.5577117061000353,-0.5692851381306223,0.6744623036791993,-0.6020434429094342,-0.3927420728835398,0.25608340523720585,-0.3655528674454253,-0.2665475154589861,0.6121372896355258,0.34202607926626405,0.42575612434020427,0.32559647767551125,-0.44841188344146493,-0.08774429662863925,0.4862138640076108,0.22370392268600536,0.5865662720014269,0.5171022987530427,-0.5011199485749357,-0.008399303138939551,0.5229498978296516,0.5571920949134412,-0.18621760326175302,0.23372888014894388,0.25830750578325323,0.07811373287417345,0.18308645018829883,0.06339897829573027,0.31331852878174205,-0.1178164323664384,-0.45235815017297853,0.5951828099366687,0.4854175199924067,-0.21790174464290485,0.27084959123943897,0.17702435734035693,-0.507631632685033,0.2076864761725008,0.15031087726571635,-0.15959302145775,-0.3223252360658819,0.04321131460748784,-0.3830437333167853,-0.31985350985541783,0.15688757823433208,-0.4571324355128408,-0.26781460119059186,-0.10983163645562832,-0.0797156137930034,0.1532094943476603,0.06141718370791582,0.1513892762569592,0.2806879196896288,0.40481972210985173,-0.6117431427775835,0.2891238089781144,-0.12249437349677977,-0.0026110172499138606,0.12734664750804547,-0.11069455062789502,-0.57603268612676,-0.6100406506538125,-0.6088904355977264,0.5092750224875275,0.11002395736041815,0.07274059739911054,0.3862908655110209,0.4629679627352421,-0.050897361232218,0.12267729916213477,-0.5802043271902496,0.4235569325410975,-0.30656196814945713,0.1736495830006829,-0.3092889769072101,-0.3996883304839635,0.12127296007055455,0.4116390936822931,0.25379369518837036,-0.6149521362197847,0.05133807950071256,0.6228045273895693,0.3283259108046419,-0.2697090469428287,0.3314659195029813,-0.4569953383263293,-0.18884497827218533,0.43459950263584024,-0.3511168948382082,0.16737478681353846,-0.0021023531274673157,-0.5370306195152799,-0.6216670341891826,-0.14112214268226797,0.11702993122298289,0.5624936682511299,0.0943837783486241,0.1159736589721545,-0.1155297599366778,0.06884389039830208,-0.01098849785846523,0.5996024210248336,0.3891373245460381,-0.5140587913623516,0.37057976854485486,-0.13976725039843607,-0.48390186449034056,-0.40584237463046935,0.31400565574484596,0.2016875479885739,-0.5258390535126394,0.026684057703174613,-0.5240768898425217,-0.4558439896165686,-0.5548972009292634,-0.24194941052467162,-0.4456215471701681,-0.47422580115259505,-0.23225713520995556,0.05116055202207315,0.09276655583472482,0.02213865445844876,0.3190006828194001,0.2650734108952082,0.042434828313587025,0.26720371091310136,0.374761018480805,0.23667472127444378,-0.8438102775589609,-0.8128822817933389,-0.6962309479094946,-0.22670516984320666,0.5654351319398465,-0.2638230196414836,-0.26965429927340345,-0.42781685492040666],"Bias":[[-0.5670577066900593,-0.5670577066900593,-0.5670577066900593],[0.11000427126958834,0.11000427126958834,0.11000427126958834,0.11000427126958834,0.11000427126958834],[-0.19585830945633875,-0.19585830945633875,-0.19585830945633875,-0.19585830945633875,-0.19585830945633875,-0.19585830945633875,-0.19585830945633875],[0.01299412735283667,0.01299412735283667,0.01299412735283667,0.01299412735283667,0.01299412735283667,0.01299412735283667,0.01299412735283667,0.01299412735283667,0.01299412735283667],[-0.6626406633313279,-0.6626406633313279,-0.6626406633313279,-0.6626406633313279,-0.6626406633313279],[-0.3372634793860323,-0.3372634793860323,-0.3372634793860323]],"Activations":["linear","linear","linear","linear","linear","softmax"]}