{"Name":"model.json","Shapes":[[5,3],[3,5],[5,7],[7,9],[9,5],[5,2]],"Weights":[0.24968463685950226,-0.09254028509017564,-0.44822405816044686,0.4387771680292012,0.12724487290446118,0.8565572862106481,0.8065122276990564,-0.6871801158913962,-0.7679369153300836,0.8516533205938699,-0.5174441584974007,-0.7691533557343275,-0.30278729895013445,0.3595696686319818,-0.4378313093714402,-0.3001857079622089,0.05044907632030449,0.6226701236231544,-0.9970422309133639,0.47547603581586495,-0.6638487333098866,-0.30483643310627073,0.8055531312886752,0.41298263221148757,-0.792350582471148,-0.255921902503799,-0.8465036239253315,-0.7761119731810643,0.5020420084057211,0.5057151550954004,-0.7325613218368519,-0.5901901873386918,-0.8527950404096374,0.38002841384223973,-0.0666382617123692,-0.6256924018243235,0.45205358093771353,-0.9402455820660075,0.47063863069602363,-0.5341689899684395,0.24110653761269085,-0.6018981568914386,-0.2816446493242504,-0.30875381527627616,0.6165230584361878,-0.23600891597557871,-0.2907374602572389,-0.6901706719504425,-0.1843695840930929,-0.018392071705190083,0.7835343630794624,-0.6124150187607384,0.23911787596765888,0.49546094428850973,0.9475500273264563,-0.674384396995807,0.39022987047573654,0.6387599136777219,0.6038002272562039,0.5979090707659317,-0.1536974151984608,-0.21546778671941258,0.6145164616614179,0.07089465282534801,-0.031728148701891556,-0.02766513923641245,-0.14567758240267814,-0.1889023603822214,0.08756444848650136,0.025699944323170576,-0.41983465710541457,0.05657010833224152,0.07978406886451561,0.01623001308443306,-0.4021654470505758,0.18821506351427164,0.2616282381558017,-0.670230292687036,-0.8400694460645689,-0.08335268288281217,-0.7681017821172952,0.05397164055850756,-0.4449465903896651,-0.7791674177754251,0.09048335084046777,-0.7728032554589813,0.4759210510465792,0.3787450171387863,-0.5311885947147084,0.3841585757238397,0.47454365605460813,0.9421815735883201,0.615095197477608,-0.042374490993056124,-0.3911328780759238,0.3572477191143345,0.1299755912965146,0.7372133230097893,0.8932489928107987,-0.13099223070175048,0.3992811269096399,0.767546399977324,-0.5309583744834158,-0.6122251157991284,0.4429707276329973,-0.7683156051575033,0.7078037928863745,-0.13042566610651157,-0.9921709589981655,0.2066662715366514,0.7784746715647772,0.3411394798220616,0.5005950283380445,0.12289622187643179,0.01020347997462867,0.3171607881206928,-0.15645905380354264,-0.04802283898581339,-0.41706250040789894,0.669167956221139,0.7749432104370686,0.7328615190529673,0.4290831666195687,-0.3255045371728863,-0.9146781463143115,0.8606626784782678,0.20451767061831416,0.13795090577106517,0.41986706037287025,0.1876819803876939,0.21000443346532593,-0.0702333332371684,0.6952154805073985,0.31093262174934955,-0.48482259529237526,0.46077350585361354,-0.566824684303441,-0.3896973884620981,0.829283346439168,-0.43212023028406044,-0.3625806162177433,0.8924704555050624,0.7679631967637839,0.544635064153328,-0.600856425018123,0.011374047791850028,-0.11070580586934153,0.8318758934137143,0.009659009599316093,-0.6563764469096853,0.6339952410174643,0.6762177664935018,-0.5249497588274668,-0.12032220049409414,-0.38348246769434713,-0.5670775786064508,0.19298323792512884,0.3920694428433664,-0.6961229813275911,-0.2585716905576836,0.6153221148936443,0.9918050311514857,-0.5479148519752214,-0.3936763245943788,-0.4839699743420418,-0.5135358043268781,0.09827821675710557,-0.7565982924901183,-0.621443778674687,-0.08338816021128093,-0.47663504399057743,0.6224151461585039,-0.3154176608712598,0.7660984556406931,-0.08530387789647642,-0.7874166665560725,0.7746723731195435,0.5319887641879877,-0.6093203446299896,0.7602933797990221,0.6618640884815132,-0.963007029906955,0.31619959057532343],"Bias":[[-0.9807316883141192,-0.9807316883141192,-0.9807316883141192],[-0.45554606530414543,-0.45554606530414543,-0.45554606530414543,-0.45554606530414543,-0.45554606530414543],[0.8732999806447872,0.8732999806447872,0.8732999806447872,0.8732999806447872,0.8732999806447872,0.8732999806447872,0.8732999806447872],[-0.30320919436413074,-0.30320919436413074,-0.30320919436413074,-0.30320919436413074,-0.30320919436413074,-0.30320919436413074,-0.30320919436413074,-0.30320919436413074,-0.30320919436413074],[-0.5135826650114306,-0.5135826650114306,-0.5135826650114306,-0.5135826650114306,-0.5135826650114306],[-0.17931938477067288,-0.17931938477067288]],"Activations":["linear","linear","linear","linear","linear","softmax"]}