{"Name":"model.json","Shapes":[[5,3],[3,5],[5,7],[7,9],[9,5],[5,2]],"Weights":[0.24968463685950226,0.5519473250343514,-0.35305211044525586,0.8034034690917051,0.12724487290446118,-0.0942116630508194,-0.4003841533261302,-0.6871801158913962,-0.7679369153300836,0.49859010356233124,-0.5174441584974007,-0.7691533557343275,-0.30278729895013445,-0.3090031202550214,-0.10554975179478931,-0.3001857079622089,-0.7427041002899187,0.6226701236231544,-0.45185756080581674,0.47547603581586495,-0.5890439805564739,-0.30483643310627073,0.045535946801226745,0.8237500118839123,-0.792350582471148,-0.35456016241953847,-0.8465036239253315,-0.5064131919710566,0.5020420084057211,-0.2893740527410069,-0.2800781415873305,-0.5901901873386918,0.6585690031873362,0.38002841384223973,0.07018110833193203,-0.6256924018243235,0.06576071935417627,0.6550023773365586,0.47063863069602363,-0.5341689899684395,0.6621914423722909,0.09561708515940759,-0.2816446493242504,-0.30875381527627616,-0.07971797185277107,-0.23600891597557871,0.08040235363299308,0.49436714024994555,-0.1843695840930929,-0.5587808186375087,0.13316165852017792,0.18701835448770365,0.07079328539958107,0.49546094428850973,0.19457615519660365,-0.674384396995807,-0.6535526908445506,0.6387599136777219,0.6038002272562039,0.5979090707659317,-0.1536974151984608,-0.3821241529137088,0.6145164616614179,-0.11121145781372543,-0.031728148701891556,-0.1539991991174689,-0.14567758240267814,-0.1889023603822214,0.08756444848650136,0.025699944323170576,0.5189045336279137,0.05657010833224152,0.07978406886451561,-0.2715105737932978,-0.5388035678324631,-0.5161931724849415,0.5629024172088974,0.5073300984863496,-0.07534268633731744,0.03210543438813196,-0.15783380136709418,0.22897391615756235,-0.4251280716609317,-0.07089273686120956,0.09048335084046777,-0.416841879404268,0.4759210510465792,-0.4861947164390171,-0.5311885947147084,0.4204468392811922,-0.4836776182275143,-0.14369927983314618,-0.123163942242898,-0.5651457169321241,-0.3911328780759238,0.3572477191143345,0.1299755912965146,-0.5257071257450042,0.5383481725509887,0.18895124557175513,-0.4405507483488114,0.3723865232268103,-0.5309583744834158,-0.6122251157991284,0.5848605690681492,-0.21479075094945826,-0.5772133492947851,-0.13042566610651157,-0.4536818279740753,0.05263363863322945,0.5061808032747408,0.3411394798220616,0.031845315927484186,-0.4276741738058103,0.01020347997462867,-0.16863616614561056,-0.15645905380354264,-0.2574876305066729,-0.41706250040789894,-0.12489462167283555,0.36002712614842924,-0.2206064204049164,0.4290831666195687,-0.3255045371728863,-0.5984306728638669,-0.582848939137207,0.20451767061831416,0.13795090577106517,-0.4844246467799438,0.1876819803876939,-0.348473867273961,0.43322228497384274,0.41529371106503454,0.31093262174934955,-0.48482259529237526,0.46077350585361354,-0.603175635422669,-0.4445702965656029,-0.3918265779525002,-0.43212023028406044,-0.3625806162177433,0.4627661445850051,-0.6019460058324405,-0.13098319107370038,0.1931251292889502,0.011374047791850028,0.011082823712031065,-0.4550649283620266,-0.08858926823651014,0.1367278643030423,0.1374089039292261,-0.17025149177842414,-0.5918714002329812,-0.12032220049409414,-0.38348246769434713,0.0071308130661447144,-0.4679728459077243,0.5350975562820042,0.46158382879656257,-0.5839473538418286,0.6153221148936443,0.004736410395765445,-0.34177533802265947,-0.3936763245943788,-0.6257806175738917,-0.5135358043268781,0.09827821675710557,0.08013124001321414,-0.621443778674687,-0.08338816021128093,-0.47663504399057743,-0.573419742644485,-0.29158542339262633,0.7660984556406931,-0.19685496288711468,-0.46504086502579595,0.7746723731195435,0.10490551723112573,-0.6093203446299896,-0.07194932182564195,0.36488579280794275,0.2227587326150755,0.31619959057532343],"Bias":[[-0.9807316883141192,-0.9807316883141192,-0.9807316883141192],[-0.45554606530414543,-0.45554606530414543,-0.45554606530414543,-0.45554606530414543,-0.45554606530414543],[0.8732999806447872,0.8732999806447872,0.8732999806447872,0.8732999806447872,0.8732999806447872,0.8732999806447872,0.8732999806447872],[-0.30320919436413074,-0.30320919436413074,-0.30320919436413074,-0.30320919436413074,-0.30320919436413074,-0.30320919436413074,-0.30320919436413074,-0.30320919436413074,-0.30320919436413074],[-0.5135826650114306,-0.5135826650114306,-0.5135826650114306,-0.5135826650114306,-0.5135826650114306],[-0.17931938477067288,-0.17931938477067288]],"Activations":["linear","linear","linear","linear","linear","softmax"]}