{"Name":"model.json","Shapes":[[5,3],[3,5],[5,7],[7,9],[9,5],[5,1]],"Weights":[-0.3276504348443283,-0.822839386197429,0.19686964653599892,-0.6053162128913714,0.18200909445362878,-0.7443809263838879,0.6700648300903989,-0.8517598836179341,-0.000911200302271209,0.757689617338748,0.6045195717104077,0.562132125575902,-0.5955314225837751,0.25215111335323637,-0.10365919233869991,-0.1993357771199058,0.35100499249932393,-0.24379033950509332,0.6171298301044132,-0.6006467575194541,-0.5239410448515212,0.3960927527518705,-0.329370424347181,0.44971323006085595,-0.045242624298547085,0.12200970092052121,0.2670978296608595,-0.8736400591430261,0.702488640313534,0.43630092870416015,0.6011723127246632,-0.048766379275416605,0.12722438399721703,-0.3194862478424441,0.37526256755570697,-0.11770890800548306,0.5142296636297286,0.5626064034064167,0.5896799598640879,-0.861168604650126,0.6702161463549294,0.55589634184753,0.3159455150176901,-0.10246794959344285,0.7211072066170865,0.09030268168124955,-0.4850858188790086,-0.5291460613303995,0.41731459961551787,0.5170318404888753,-0.3466614847804608,0.35106251403738187,-0.6047219095955143,-0.23805968981369774,-0.3747058904226983,0.3714275688151075,-0.7028163803880076,0.47673890300867805,0.20022896390566003,-0.0008782092783548023,0.9853684299839287,0.8839183311361853,0.4032883748717716,-0.5901633822859793,-0.4416668270508045,0.3287097613313721,0.5621912111885665,-0.27180191744372817,-0.9748629561467426,0.21539935434100554,-0.2539045880363982,-0.3419306575786268,0.3067846657607485,0.5640047552053566,0.8285721357833833,0.6417195908678655,-0.15995084948285765,-0.703766726419398,0.08356904297185908,-0.23745692793185197,0.6607525216650905,-0.2738565942336952,0.4053400812110308,-0.16534520032526223,-0.1224316354905044,-0.12517285450330345,0.20584356679935634,0.07478104833639976,0.5053134686532164,0.05823088859696368,-0.017183827860326795,-0.7654353333877004,0.7742478875277086,0.33686798409394325,-0.47215102108817175,-0.3996436025561126,0.11638750211379256,0.6253213121639223,0.1638082841236137,-0.4363410405040318,-0.026197330520455364,-0.278048435062409,-0.6924329869634754,0.2794831067374517,0.1770277378120365,-0.004933636537050368,-0.5341894580799401,-0.47762919293878603,-0.24334514581205352,-0.14502104184886166,-0.4943645707359714,-0.23281832909884315,0.8186875421289439,-0.5079559112348276,-0.602416678630816,0.5827312817273671,0.2499562610297359,0.8535530145092878,0.4235146324337926,0.2583762871133972,0.4672845967355088,0.4916111595760613,0.5501925149153246,0.8696304298700748,0.14295172507491116,0.4362321312747419,-0.9720665417258605,0.29818628146952786,-0.8359199359396088,0.3225779904788515,-0.2231062952813193,-0.6146344677555009,0.5323216666830701,0.3908527332162153,0.591180385888048,0.22732612220060466,-0.6246528577270856,-0.8243077833417313,0.382265167626205,0.10804632709956496,-0.09900160449456286,0.290720406761394,-0.02247206998961193,0.2095865266304069,0.04083929088462479,0.13276407636335774,-0.9506493756941445,0.13967011682382835,0.12292484807315796,0.7708947959676513,-0.5545738134907916,0.23858220327787238,0.0035716066827669035,0.020421782122298282,0.360242200725025,0.5846489143843925,0.31220624030837274,0.8190231619120423,-0.40701453373859453,-0.029005764465176775,0.5933952436816012,0.760986915150605,0.26811320138988937,0.6303967003571689,0.19146764619379342,-0.6190031716919062,-0.05233782070721682,0.2672840265212404,-0.7893772043334821,-0.5601570788765294,0.5893035329371357,-0.31928562214255274,0.5268663564629543,0.6843401054259057,0.7196317632143858,-0.36253584395737404,0.603174575826245,-0.23690098069319643],"Bias":[[0.5014392714553297,0.5014392714553297,0.5014392714553297],[-0.5413475133237466,-0.5413475133237466,-0.5413475133237466,-0.5413475133237466,-0.5413475133237466],[-0.9779533371488726,-0.9779533371488726,-0.9779533371488726,-0.9779533371488726,-0.9779533371488726,-0.9779533371488726,-0.9779533371488726],[0.18062994135528432,0.18062994135528432,0.18062994135528432,0.18062994135528432,0.18062994135528432,0.18062994135528432,0.18062994135528432,0.18062994135528432,0.18062994135528432],[-0.2899702145997717,-0.2899702145997717,-0.2899702145997717,-0.2899702145997717,-0.2899702145997717],[0.8995703264643125]],"Activations":["linear","linear","linear","linear","linear","tanh"]}