{"Name":"model.json","Shapes":[[5,3],[3,5],[5,7],[7,3]],"Weights":[-0.7292022307364505,-0.35847007646709084,0.41350291200761835,-0.5908136691276789,-0.4004027700257188,-0.4048997869895216,0.038874061049470665,0.5001118216805056,-0.08888712768178264,-0.7895484206842295,-0.20823155595595177,0.13084930659312122,0.29147355917720286,-0.45314297568090217,0.06846879712674625,-0.5254936238548709,0.44256741801054367,0.17555635403313818,-0.4982262211625621,-0.08576480269357567,-0.5394026616830783,0.1722550850095108,-0.10861891316517247,0.3181058327060251,-0.3496545096414925,0.8145190678441754,0.3167720209957192,-0.6463067539577582,0.2096180163885104,0.2706101578434563,0.5829851333230586,-0.36771472335487915,-0.5275946142188084,-0.5824436446060514,0.6085402823506295,0.27925439012602815,0.506460319266213,0.07925575160558385,-0.17823077338226123,0.09077728045454081,0.35623440941651785,-0.42585515849453703,0.37070708207718306,0.5722412254625281,0.4697102220773336,0.5635858435677138,0.6089263077819104,-0.08898854766579767,-0.24765061109707076,0.39584708174919203,-0.45145676923909733,0.3925551865505975,0.6574356284972463,-0.5539565684691774,-0.21185710632874144,0.22985525837306964,-0.5511295375524289,0.13125350008114356,0.024615698060304503,0.349155406258571,0.5703645244710925,0.4761224553456128,0.04782678151882258,-0.4101127422456737,0.6136884490967646,0.20025175140699547,0.1129232289437232,0.2611964532682658,-0.5612052760459159,-0.6588212690586794,-0.7641125724565431,-0.3555485567930384,0.7258692131739379,-0.5215464625536559,-0.6658234588507268,-0.5544142600772382,0.39250253441888505,-0.4176032187982056,-0.6299676183806525,-0.06430047231097769,0.5362406567073104,0.10487470046377478,0.7193332688365446,0.5479201229575501,-0.08047286848107249,-0.17777863215883571],"Bias":[-0.7578922153986558,-0.7578922153986558,-0.7578922153986558,0.18235807603740906,0.18235807603740906,0.18235807603740906,0.18235807603740906,0.18235807603740906,0.47929240679510565,0.47929240679510565,0.47929240679510565,0.47929240679510565,0.47929240679510565,0.47929240679510565,0.47929240679510565,0.7905139583050151,0.7905139583050151,0.7905139583050151],"Activations":["linear","linear","linear","softmax"]}