{"Name":"wines.model","Shapes":[[13,8],[8,8],[8,3]],"Weights":[-0.7082659739216159,0.17101670203766783,-0.9983490037654437,-0.15624747850138576,-0.523586121038085,-0.22634349419274602,0.8912635899483472,0.05411090192762669,0.299194849112854,-0.8959260105195609,0.9955967113550555,0.996522334620008,-0.9075737072364434,-0.006910740990511588,-0.9618428113818341,0.8764376571089179,-0.9995383256734914,-0.5661527011946215,0.9999485036045752,0.9985180684563528,0.9995682271706847,-0.9996106515341823,-0.9990392925724213,0.9992563574034468,0.8335465128415622,-0.4873604617674425,0.6840323327161346,-0.6375430915426317,-0.44969400342987753,0.38702353603636763,0.9777445087420367,0.3368713655177793,-0.062450330801508525,0.07426244090311562,0.03623817873437063,0.18885901886573242,0.17901199767000764,-0.3154064944991401,-0.179984954846527,-0.4393179120482822,-0.9990720691408232,-0.6482626322476808,0.6537973830161823,-0.9116809926051024,-0.7956849348453826,0.04787481355156542,-0.39188655617049806,0.11098292616260652,-0.9976941219534725,0.9999138833106282,0.9979288532970423,0.626015362462552,-0.9977364805929735,0.9998686575689064,-0.9999338435753364,0.9963034347318862,-0.84551229405632,0.9899242721532613,0.3640485719238087,-0.527334180553615,-0.10510329489268144,0.6182143149334294,-0.9814928825461858,0.9989835064503203,-0.9950865897126214,0.9818461720083564,0.745462849751994,0.09408571501411744,-0.7198413773644582,0.9940990844033735,0.09935024904174283,0.021070567197189582,0.28955678851796796,-0.6198330079304849,-0.022537889220628493,0.9537410100584782,-0.3957664313172804,-0.7001591896964197,0.3055375135173606,0.3568289598901424,-0.9980436731519237,0.9969461432999587,-0.9980011618322217,-0.9957096717681763,-0.9993051778880458,0.9984134713937332,0.9990041168910213,-0.9945772909840881,-0.9994655333276832,0.9986051071188029,0.9914526151967256,0.7386511750280929,-0.802256688569497,0.799270479107737,-0.9992843892043246,0.3993109621174953,0.3197431165130975,0.39303176665125905,-0.22441332203036057,-0.20174930033245214,-0.04083371047877832,-0.12292553987087879,0.15285533422765152,0.25040362672379535,0.25427331779663265,0.5169610054505314,-0.47611259549218926,-0.10936863291051624,-0.45424158592276764,-0.19557788277193178,0.0650546847332556,-0.3504568437553666,0.07484074390421358,0.4142569167917014,-0.32309271615002777,-0.5487001051017514,0.6073870254704765,-0.27015558742180684,0.015470505238892152,0.05847055214577079,-0.06789337044612798,0.14450062826138943,-0.00462469553808309,-0.42448576395980153,0.028552013662544673,0.4390626826541657,0.243021498057868,0.09451840420266666,-0.5289950530818652,-0.5483309814613968,-0.4490616515616014,-0.11219827987554443,-0.2144031618752285,0.438115657877731,-0.06483232753262314,-0.11401801477729501,0.043239046740174425,0.5574318704295471,-0.9716189116998143,-0.2954105806804723,-0.49077684860158455,0.07806293117671292,-0.6075094647143735,-0.4890716687878872,-0.2630459280360159,-0.25387797029988246,-0.3640801866020117,-0.12946697633929044,0.387298859079812,-0.5613216002000785,0.6064653755664382,0.2306922764158783,-0.21052293656793208,-0.1568375600153642,-0.011391115493162518,0.43090073512356564,-0.23513036621596334,-0.12753299572101512,0.27269273490507573,-0.15300427460198418,0.22278584008143687,-0.29404424484116054,0.17836134092338496,-0.12044819944077823,-0.31311320109783874,0.5624920131752007,-0.16152272549221952,0.3497351702189625,0.5839712847663137,-0.33266481371499707,0.0909092654812067,-0.34070273956246366,0.646349730887859,0.19739319431112756,-0.14215315486810276,0.2313506734429398,-0.0753142683357757,-0.38914664192377446,0.6111616765845229,0.2779982550995226,0.37359970053550584,0.9991365315847658,-0.9994813859788827,0.241732861582742,-0.10406618497035747,0.3204888454951398,-0.4993273872753936,0.434171644242467,-0.4000968606925239,0.4713036268936228,-0.22383952210994595,0.27151735356363416],"Bias":[[0.5858225313745578,0.5858225313745578,0.5858225313745578,0.5858225313745578,0.5858225313745578,0.5858225313745578,0.5858225313745578,0.5858225313745578],[0.9079804370552103,0.9079804370552103,0.9079804370552103,0.9079804370552103,0.9079804370552103,0.9079804370552103,0.9079804370552103,0.9079804370552103],[0.6311845021133324,0.6311845021133324,0.6311845021133324]],"Activations":["linear","linear","softmax"]}