{"Name":"wines.model","Shapes":[[13,8],[8,8],[8,3]],"Weights":[-0.7727295823828804,-0.6478552200069873,0.773378899620917,0.524525665926862,0.7285285798564924,-0.12445730197049987,-0.8342340977666174,0.08918162746346248,-0.12007545969777667,-0.2242853082795998,-0.9330180004834391,-0.6193222598195949,-0.8395541246445966,0.563908359782997,0.6104838915107951,0.23601820055758793,0.7633511143862453,-0.6238134752423329,0.43557195299762164,0.41251501208016883,-0.8987688229875971,-0.11374429397649233,-0.933186006412191,-0.10266092302531149,0.7921545219217139,-0.6682762812332566,0.23861605986635248,0.10206997480832825,0.8950845966568843,0.4885236774844026,0.2570128038156838,0.5325705506363776,0.04725585130867693,-0.7165574729120769,-0.34681328747533124,-0.0364733705904019,0.8537722412275801,-0.6712029976553375,0.1337884894369047,-0.150509271079028,0.8268064649904618,-0.6630283507934362,-0.6331799525656976,0.08314479470714975,0.8256347296919273,-0.7466542730017769,0.9668526802045962,0.43026382332440627,0.1989923253988959,0.7679356223580391,0.615755087590395,-0.4608244442921764,0.2196801576506131,0.6417039157028488,-0.9510189891712889,0.30736239378236907,-0.9826877231212497,0.6270353385654337,0.1805260021572701,-0.07110789296155984,0.9294153840937553,0.5492745338673193,-0.8136275992644447,-0.8803259245716,0.5381799135902368,0.1705893050058931,-0.9719069808936851,0.09389771496772403,0.8616186966425645,-0.04234587486414676,0.9426004719305181,0.8633544869848828,-0.5760594747766813,0.1279203456499427,0.43473777689069704,-0.0182577883680195,-0.9929035347869044,0.3025880071291007,0.38394339556495893,-0.7755173280090121,-0.6771828297702336,0.995655126036423,0.9943950269456578,0.24064867011092295,0.9928649977867199,0.36657971801413924,-0.9550110219360852,0.37279902103201956,0.31636074497511957,0.6290395905339741,-0.5583589010338854,0.6470550112712419,0.9924688831394746,-0.6020835013245069,-0.22982442761618394,-0.7684941199674156,-0.5884260725811716,0.33848494233922644,0.035333816395146656,-0.4941094327822546,-0.10168409054883698,-0.9229335372065524,0.398193350299468,0.009922098111834421,0.6447579366135121,-0.7897120666013744,0.15214219454718103,0.04867492775868554,-0.4691550749257194,0.4274628809208325,0.06855079801501596,0.013939059376451679,-0.9950391679244467,-0.9061529118065064,0.8835964918177612,0.9817776707451678,0.7042242397880119,0.7668473424287481,-0.3292732471512121,-0.2642866920935285,-0.3149800856827638,0.4401385925524375,-0.1506780293897203,-0.9909072514829743,0.9753790287350932,0.38160181898609924,-0.4643437497274592,0.9486402999471442,-0.6447984619874214,0.6472858509202641,0.20748638034887534,0.5856198970311977,0.8454624371915052,0.8429304706527074,0.7094208453781845,-0.6029896657830939,0.7964874392603762,-0.825122579460248,0.07902551462583385,0.9738193438126588,0.7075621049015264,-0.2242626179367221,-0.4091171207604598,0.5327802728846955,0.958671035124784,0.8389428056028698,-0.9622156155052359,-0.7931552805520876,-0.7801415212167909,0.5939179533227201,0.16445595163142546,0.6533325953754385,-0.6188656354927458,0.5711952959145106,-0.5033326564147669,-0.15175294360956848,-0.4605151426795874,-0.42019727406880003,0.22287811933874702,0.02839712778560588,-0.5778774684191001,-0.9458165104239603,-0.5264395738301867,-0.9578942004607695,0.5213386825185768,-0.951443518548937,-0.2309702740012024,0.8106325527422078,0.2100476754895111,-0.7590197500279962,0.47236847833644435,-0.9764082371508442,-0.9798247632376652,0.9964134673889555,0.5368221167529441,-0.9018663788512522,0.6329376715821962,0.16528788257981786,0.1566607365252508,0.12421410368976571,0.19125773101625998,0.9797172352818506,-0.917135021390072,0.9762606185453042,-0.9777497118209284,0.26868578254527686,0.9106540728225092,-0.5418729328623524,0.7717111795892271,-0.9891368551361613,0.04535025729712849,0.021557314135257855],"Bias":[[-0.6351901368011361,-0.6351901368011361,-0.6351901368011361,-0.6351901368011361,-0.6351901368011361,-0.6351901368011361,-0.6351901368011361,-0.6351901368011361],[0.9631300732242332,0.9631300732242332,0.9631300732242332,0.9631300732242332,0.9631300732242332,0.9631300732242332,0.9631300732242332,0.9631300732242332],[0.32982048418071575,0.32982048418071575,0.32982048418071575]],"Activations":["relu","relu","softmax"]}