{"Name":"wines.model","Shapes":[[13,16],[16,16],[16,8],[8,3]],"Weights":[0.34849533973750146,-0.292814868912304,0.30241601642474397,-0.42488742074441,-0.028302521102610223,0.536457574133079,-0.6305265045629704,0.2769622866944026,0.3636669534485302,-0.02336320133839981,-0.02718794748363873,0.88658435307715,-0.3384298925589596,0.822782141493124,0.9238751704002588,0.37788443908094344,0.8272893795697585,0.7514229602461548,-0.38452189726390895,-0.21583428501333324,-0.683330150153572,0.8173939981156688,-0.741840656526958,-0.6053404992588923,-0.6582514727857819,-0.2974971977466947,0.8677096603607215,-0.00538441131360512,0.5108032412844958,0.22120058807795195,-0.28456557415465555,-0.538288615119779,0.9649449119739928,-0.15280135515292914,0.2986154635089744,0.3879778431388736,-0.562573486993136,0.47977770399252373,0.1355577408407429,0.3293189468777733,0.012167037257654556,-0.14248882699062937,0.027372375942751326,0.9535909614612135,0.7852738197311273,0.5105875954999566,-0.29486241795374957,-0.39861946825194017,-0.3858518125278828,0.08584967502187663,-0.1646283185610637,-0.28230315944606754,0.25108284921477675,0.9790306523441206,0.7802216958610291,0.013269284207746479,0.6573492452763339,0.2357492506913284,-0.7487390180723064,-0.24389110656579627,0.447063971724152,-0.4090934533582954,-0.5249146845943984,0.2988550156595266,-0.005093687295315397,-0.3253505355407604,0.3171764278114039,0.7382489833381995,0.6931596737931012,0.3547032074790466,0.26482087670222487,0.32748105430168,0.02571927433861454,0.2907727185380918,-0.07950583468654948,0.4604656779567977,0.08662839660755828,-0.03899409712704349,0.26836893664146566,-0.006547270939388117,0.26636355158369174,-0.731808994169965,-0.33456251244227675,-0.7839977367908889,0.41831823454156947,0.9545220288751977,0.4670955543721049,0.7584257760691782,-0.3337230941063676,-0.16886371979559434,-0.24029122210507448,-0.3276899887684893,-0.9539838612853131,0.30792334591504944,-0.4741595799065661,0.13362106640648846,0.9373205229086254,0.48436578325373825,-0.21273806965827302,-0.7379519393936893,0.6263443565294295,0.9807729304994433,0.3742727190070747,0.7143748274665687,-0.41793190681760173,-0.3002734068977334,0.7273115701287944,0.3986539650796055,-0.5356902572085396,0.30648237834738956,0.9505528135112051,0.22430166745962343,0.11025707481432301,-0.35942585892441636,-0.3989140572891685,-0.5757479332217244,0.8119893688001603,-0.31894557495858844,-0.6076484579752827,0.9642174509841355,0.47589308534763153,0.026065471464729928,-0.7008326588200052,0.19726215584980045,0.7069884701342437,-0.8435520424088071,0.37448202150339793,-0.825698682203376,-0.5013731925296437,0.6131770394483556,-0.5376736472142049,0.9604899107077531,0.45443097319577364,-0.29476217659909865,0.4445603597278356,0.09743124642491097,-0.9594550992106518,-0.9925898039166148,0.08301002940327251,0.32452326879551885,0.6106440695857505,-0.5661046842641321,-0.7235969946072991,0.03208387151787506,0.13260951518431835,0.380291117792974,0.3617648304605252,-0.06715359296145651,0.35262459760673104,-0.5369132599166937,0.8796341720479262,-0.42962322207955805,0.46544247150782736,-0.15078016669152805,-0.5314415635654723,0.2924850522641991,-0.959698040292119,-0.8626687984123343,-0.518123587856424,-0.04102415224160272,0.11292569326465562,-0.6483208696636247,-0.8210006343233802,0.6643232515951094,-0.054118265611388106,-0.21247169895892726,0.4644687179361986,-0.9388733806999816,0.3064966936961837,-0.9620191052667396,0.327244557180574,0.9634354654717345,-0.5059567218805194,-0.007003910651781298,-0.07509516943719918,0.9287192383334477,0.9895080093487936,0.32587682802408097,0.12177256889490473,0.7542851453637596,-0.8323597856513272,0.1379333337136297,-0.8243083491772071,0.6860119736449444,-0.5782346810288854,-0.9058145415985075,-0.47055666246053107,0.6665174668746148,-0.4210061334616164,0.5080740274403139,0.7392336845348784,-0.1499899904964067,0.05223344402969615,0.2446217208530133,0.04428197417801799,-0.986082013093647,-0.5894452967153001,-0.09628350371688293,-0.7267982131316593,0.07442999005102185,-0.7300910321137704,0.14541674422617462,-0.8805934626639293,-0.09528871542460726,-0.4770577978992191,-0.4688506363342432,-0.03895580538850918,0.1256549428087464,-0.8294700727482155,-0.30448314425733614,-0.0004459421284696008,0.08019555475498352,-0.041234593089165994,-0.1877243993618758,0.8759921277528577,-0.3133562423269418,-0.4068319609225166,0.014006912879317879,0.912151915271243,-0.04930561362412178,-0.26139629815758614,0.8896288714296237,0.19366348274080059,-0.15224046446940376,-0.9770544978072082,0.6061827668104585,0.8818138544049552,-0.11479901760640443,-0.17144353794352102,0.1037018738916955,0.2811570145167106,0.33473358292015754,-0.006718978120924757,0.391864156641445,-0.7795151304644028,-0.7557787930375153,0.9958260163599169,-0.36540052177509663,0.42200199873557176,-0.31364660243635656,0.327496405654778,0.8846985167810983,-0.7206437359013971,-0.19672987319339974,-0.2719387914681377,0.41015310357295953,-0.17648665406602904,-0.20176288649331467,0.10118808693526904,-0.20088846764339863,0.2500755319099843,-0.4282238913046311,-0.26956892199772853,0.03619913245564943,0.41928935765811115,0.34538005211012723,-0.6097918633937967,0.06230097339328955,0.7220545848686368,0.485518436615739,-0.5137054090130545,-0.17515642101509488,0.981800490043141,0.30659375861020877,-0.6186597544283045,-0.13265483437889714,0.9640402540869424,0.4812394464523573,-0.45422634063568845,-0.7358798321172015,0.1300315852900078,0.7918330483335261,0.4990695250037116,0.5193987522824073,0.21020181061860232,-0.38436054524933205,0.33196207704893577,0.2647473475058,0.8727564425587526,-0.8634890983935826,-0.09948484670962476,-0.1746082245656876,0.7958329118671208,0.5616946801381444,-0.1591175829088356,0.09581767801196928,-0.17159350283551267,0.5589006073076743,0.7128429167909669,-0.6402864049411646,0.590346076454384,-0.7422227302155562,-0.819870998893003,-0.0687500617079686,-0.1899984123699069,0.8406526530213572,0.9927069959463433,-0.7326973433386766,0.6265359111952788,-0.882389343223323,-0.6751121612372534,0.17912477078284006,-0.9144977941647185,-0.9966410158954223,0.22821828159940405,0.4633608425786657,-0.10850974285930126,0.9877976782797289,-0.37011008328530426,-0.5140243313147079,-0.5465503735018343,-0.17417413673507187,0.4384890174012208,0.0312805467699393,-0.20344857790018644,0.08430124247169979,-0.26737091927469603,0.33964373815320026,0.5003160401258118,0.5851114253340766,0.5742275381993667,-0.03589704937792593,-0.09060352880484412,-0.48433517754787614,0.000040318803610051024,-0.06935120858449456,0.1275841378160042,-0.17673580595339183,0.4152749836980747,0.2919717044956689,0.5368439783531609,0.6581334902345595,-0.08622610061857694,0.4979141857499776,0.3516694150661064,-0.0028127613722334632,0.6517204053260521,0.249862127433919,0.8658348262977338,0.27662607581796883,0.06229382356719748,-0.18002153831063883,0.17009269276937733,0.7091844391406521,-0.5833970238098433,-0.8290106037493107,-0.8224469755260864,0.003918708215184363,0.541178814553519,-0.18787668186200546,0.3676598045452788,-0.6346850165068623,0.6893260868078936,-0.8767720022134022,0.03826661627815087,0.7873642838202504,-0.08243363460361314,0.06377395149626935,-0.5451710241279564,-0.08683070108025731,0.23081799661176572,-0.37566664828276713,0.4922748077912704,0.02899222635202814,-0.3681367303825006,-0.2630903896100859,-0.3684613314980543,-0.01646442049782798,0.16034334661045402,-0.5019909372505413,0.20219224397155666,0.41575541436669483,-0.33323628520873727,-0.9630851863354783,0.7915272734184504,-0.18774548665167368,-0.44427015350575483,0.5451442446495365,-0.6328230809392332,0.47514911982302754,-0.6157383947324715,-0.7037829206640034,-0.32682415501755024,-0.9426230474162322,0.9943433787888656,-0.4570276162987895,-0.5540619769353468,-0.8056129965867911,-0.6989149677099284,-0.756090481874537,-0.19612369238661287,0.5076100720080681,-0.0014671121855781566,0.5954315849692604,-0.584596199701945,-0.25616349581159614,-0.512686183400737,0.011434963758951255,-0.7725720057736445,-0.3562328004308494,-0.7977172983389813,0.6572614153169036,-0.2823597616459417,-0.0924588419236565,-0.48476847837317916,0.8193816251567061,0.8247304711625787,0.9347335401507255,0.9317686569841159,0.46469541041525475,-0.008299190825987512,0.6810604563971223,-0.9749241962363542,-0.6602239861622353,0.14050008623153132,0.9529369545809676,-0.9551614248730713,-0.523117293095263,-0.18230399915225082,0.17777479059851387,-0.4019454834378843,0.10613655732993199,-0.34990512825061615,0.8693151152099223,0.7010092412290678,-0.5678606439905581,-0.9105415552030046,-0.7697430694701506,-0.6030964450210465,-0.9480774745687917,-0.6621645267665532,0.19881311425685122,-0.04621223149246778,0.8835877676293287,-0.704097847916825,0.37185865542330343,0.18901596592947278,-0.9980467341233862,0.9804387084816,-0.48376245434058496,0.27160775117801084,-0.41748164195754356,0.3837773571341443,0.4234537103657756,0.4034629128755236,0.41351064520880265,0.07844618389890146,-0.2955252239434766,-0.01732379740734702,-0.14866413144977286,-0.826378850358042,-0.34038582942578216,0.5583031125236233,0.005617290517064444,-0.09673370772106393,0.284260281889852,-0.1706932802801187,0.37597493898048784,-0.7078422582215347,0.7176918977631463,-0.6854642316071179,-0.01197089981085242,-0.3508301525572892,0.38747756920318455,0.5586101570479947,0.9544888934620308,-0.9593125818644437,0.9662111002855485,-0.9959218540978072,-0.8546947238264104,0.9769561451207611,0.9805635865304809,-0.3024811976795383,0.57919801788138,0.9162394782162808,0.35274394857297553,0.9428551168192687,0.7739062800383996,-0.9483223484887197,0.13421644559385126,-0.34763644000434024,0.63321726025514,-0.006090236495573054,-0.31473974710796226,0.4705831823140929,-0.9829106006281744,-0.5295341968459817,0.06959957602015798,0.9947828907733052,-0.9736630525693465,-0.9663593695746301,0.8947211397837338,-0.9576424654671072,-0.6119560368676317,0.680155953807339,0.9966514506523771,0.9773947143837047,-0.9926292304264337,-0.9926393224952477,0.9899565629372924,-0.9856133381074462,-0.9948662740675044,0.9882265419033045,0.9960985443948414,-0.5327831131382568,0.3386876301716435,-0.2563157848759462,-0.3833109773243084,-0.2398053847232416,-0.02164536625465252,0.37281031967738565,0.06980539627486393,-0.917263595479874,0.5674536140435065,0.863959061155501,0.9912375864263299,0.7467596987572656,-0.9004188843370832,-0.052875772833894,-0.26355867587068593,0.9718992104177357,-0.24304459486796798,-0.11623019085169528,0.7030945553022652,0.3169068238364898,0.5171789534471762,0.22270928951499647,-0.14982643190849676,-0.4949573412007799,-0.2093004679358701,0.5489258004502799,0.5397454867233804,0.4601682585090887,0.05211884752810314,-0.13545336847822936,0.2168454780947674,0.8568796580243854,-0.0422059233673564,-0.4395250859855314,0.23240587708079574,-0.25003440318451614,0.02329905065909199,0.08111882000454496,-0.23560199991272013,-0.958226718526802,0.9797313833061088,0.3688939596339138,-0.9958140676313304,0.6622125701643673,0.4541910511776521,-0.26096510588800736,-0.8713909405005332,0.9955649478235382,-0.9958075038827632,-0.968728810535901,-0.2759685049525271,-0.9679417413394007,-0.9195593066213833,0.9737724908339966,0.9712624813916697,-0.9902385518417012,0.8309255387232874,0.9490225917197534,-0.2202743785582273,0.9549851389099893,0.491315426448484,-0.9942721974753612,-0.8060835760422751,0.988065311419362,-0.14862836621710773,-0.06516970679402645,0.3846613236537364,0.4841816599838884,-0.9280312061443754,-0.09549947191905872,0.9909827045819182,-0.6616280355317279,0.21228949831936827,0.4445398467905469,-0.8201806221106558,0.16147268194031283,0.5391034053569275,-0.18032112404756517,0.21697653185661459,-0.3285899357222978,0.16695900123010743,-0.43788310514874473,-0.6424239254026741,0.11774771686802477,0.46801480567648746,0.36650343067075064,0.38610995989023955,-0.9870555962423694,0.995060243201378,-0.7349798026688578,0.5845463336450618,-0.7229321333098343,0.8756734861521427,0.9964383043495488,-0.9992312729894642,-0.46705410912369727,-0.977853765767482,0.988479431921607,-0.3121739454199497,0.8447324442049777,-0.2729102576290824,-0.6593949771455694,0.4517777900126081,0.2583114125785102,-0.4840290309024997,-0.7692666778999409,0.6207933878569878,-0.6611596146402762,-0.2765609592414934,0.7321224155781652,-0.6876941276435609],"Bias":[[0.2791550833297072,0.2791550833297072,0.2791550833297072,0.2791550833297072,0.2791550833297072,0.2791550833297072,0.2791550833297072,0.2791550833297072,0.2791550833297072,0.2791550833297072,0.2791550833297072,0.2791550833297072,0.2791550833297072,0.2791550833297072,0.2791550833297072,0.2791550833297072],[0.4332187810497852,0.4332187810497852,0.4332187810497852,0.4332187810497852,0.4332187810497852,0.4332187810497852,0.4332187810497852,0.4332187810497852,0.4332187810497852,0.4332187810497852,0.4332187810497852,0.4332187810497852,0.4332187810497852,0.4332187810497852,0.4332187810497852,0.4332187810497852],[0.6721424711896802,0.6721424711896802,0.6721424711896802,0.6721424711896802,0.6721424711896802,0.6721424711896802,0.6721424711896802,0.6721424711896802],[0.22773294181645487,0.22773294181645487,0.22773294181645487]],"Activations":["relu","relu","relu","softmax"]}